-0.035963
-0.036753
-0.032449
-0.036407
-0.035025
-0.032538
-0.034489
-0.036767
-0.034810
-0.036534
-0.034271
-0.034829
-0.035597
-0.033933
-0.032662
-0.034921
-0.033672
-0.032170
-0.032930
0.143490
0.163810
0.138343
0.153982
0.142076
-0.032489
-0.034381
-0.034230
-0.032107
-0.034991
-0.035050
-0.035333
-0.031979
0.154648
0.158313
0.145597
0.148994
0.175541
0.153885
0.152829
-0.034003
-0.034590
-0.034833
-0.033475
-0.032214
-0.033228
0.147023
0.165807
0.179192
0.212201
0.148889
0.150178
0.136246
0.164955
0.163951
-0.036374
-0.034290
-0.032604
-0.036715
0.153587
0.195193
0.110743
0.157683
0.206276
0.216337
0.168986
0.181231
0.203008
0.171862
0.173745
-0.032072
-0.033525
0.151411
0.167146
0.154205
0.171204
0.172739
0.176028
0.192629
0.181878
0.190249
0.162520
0.149293
0.160858
0.152176
-0.033978
0.149674
0.145920
0.192875
0.195279
0.176186
0.148040
0.181354
0.209175
0.185479
0.150886
0.182875
0.161347
0.143895
-0.033407
0.149864
0.163646
0.168744
0.162667
0.203649
0.199960
0.212909
0.157268
0.188029
0.208005
0.206591
0.151170
0.162247
-0.035929
0.152195
0.151728
0.162579
0.175977
0.190193
0.162819
0.188775
0.184274
0.189753
0.169728
0.196486
0.158436
0.148183
-0.035584
-0.034858
0.141397
0.141960
0.164503
0.199245
0.187003
0.185317
0.194894
0.194818
0.200945
0.171760
0.164290
-0.036540
-0.035571
-0.034454
-0.033042
0.184821
0.157343
0.216562
0.190294
0.200402
0.154891
0.184624
0.180329
0.174280
-0.035129
-0.033059
-0.033176
-0.036500
-0.036229
-0.034385
0.178145
0.164447
0.157078
0.165904
0.153740
0.157382
0.135191
-0.035350
-0.035769
-0.033131
-0.036665
-0.032753
-0.035780
-0.036804
-0.032714
0.155959
0.153392
0.143971
0.165028
0.161857
-0.032361
-0.034309
-0.034250
-0.033730
-0.036652
-0.033926
-0.035095
-0.032693
-0.034616
-0.035356
-0.032786
-0.035260
-0.033003
-0.035144
-0.033148
-0.033322
-0.035547
-0.033550
0.019446
0.019438
0.019155
0.017855
0.019622
0.017513
0.016963
0.016536
0.017257
0.016709
0.017197
0.018718
0.020189
0.019740
0.019749
0.019678
0.017881
0.017229
0.016734
0.073890
0.080608
0.070546
0.078977
0.075587
0.015938
0.020399
0.019449
0.017031
0.017341
0.016560
0.019960
0.018320
0.080614
0.027598
0.021877
0.024317
0.035876
0.026583
0.076961
0.018311
0.019920
0.016818
0.020009
0.017105
0.016755
-0.146548
-0.194483
-0.215580
-0.253787
-0.141817
-0.256482
-0.179857
-0.213936
-0.157544
0.018597
0.019702
0.019003
0.017875
0.076761
-0.170939
-0.044950
-0.145633
-0.320195
-0.224776
-0.149596
-0.143564
-0.223079
-0.203060
0.083273
0.016831
0.017553
0.078386
0.029547
-0.159627
-0.214343
-0.194300
-0.155737
-0.230221
-0.332487
-0.189694
-0.235247
-0.220331
0.029433
0.079889
0.017533
0.076724
0.023666
-0.227813
-0.234368
-0.219598
-0.180321
-0.203189
-0.229220
-0.151866
-0.169821
-0.207461
0.026308
0.075807
0.019326
0.079298
0.029876
-0.146123
-0.164733
-0.244891
-0.219031
-0.299479
-0.094629
-0.282373
-0.250540
-0.269227
0.024963
0.077304
0.019711
0.078458
0.023144
-0.179023
-0.222748
-0.215151
-0.150111
-0.263979
-0.221566
-0.225521
-0.212654
-0.109925
0.028537
0.075934
0.018852
0.018826
0.071556
-0.200700
-0.148221
-0.213966
-0.251018
-0.310504
-0.221850
-0.156498
-0.299256
-0.157541
0.081327
0.020292
0.017774
0.017164
0.019584
-0.193736
-0.159369
-0.145521
-0.246948
-0.288699
-0.085121
-0.198315
-0.282903
-0.227422
0.019428
0.017021
0.017730
0.016103
0.015951
0.015855
0.086274
0.033171
0.026935
0.029321
0.023015
0.025271
0.073887
0.015918
0.015874
0.016964
0.015641
0.018662
0.016202
0.018186
0.020571
0.077296
0.077735
0.076589
0.079970
0.081658
0.019802
0.017471
0.017434
0.017080
0.020080
0.020203
0.019958
0.018600
0.020312
0.017342
0.017293
0.020287
0.020312
0.016832
0.020259
0.016417
0.018214
0.018762
0.008362
0.007872
0.008594
0.006837
0.006501
0.007027
0.005416
0.007143
0.006623
0.005600
0.005607
0.007870
0.009073
0.009002
0.007971
0.006027
0.006517
0.008785
0.007746
0.027015
0.029895
0.023918
0.026744
0.023971
0.007294
0.007695
0.005485
0.009778
0.008086
0.006729
0.008639
0.008920
0.024327
-0.122885
-0.124453
-0.121059
-0.114811
-0.123594
0.024062
0.006466
0.005911
0.009676
0.008132
0.009808
0.008976
-0.006004
-0.155990
-0.144300
-0.151417
-0.143924
-0.159942
-0.148139
-0.150335
-0.002432
0.008571
0.006343
0.009906
0.005249
0.028258
-0.145248
-0.142087
-0.145893
-0.165449
-0.151240
-0.143602
-0.138225
-0.154548
-0.153905
0.030825
0.008808
0.006634
0.028257
-0.116465
-0.151283
-0.155747
-0.146559
-0.144923
-0.151378
-0.164020
-0.146845
-0.163789
-0.158628
-0.124901
0.028443
0.009596
0.027213
-0.123555
-0.149264
-0.152203
-0.143266
-0.149037
-0.149243
-0.153510
-0.148308
-0.146639
-0.152168
-0.123723
0.027338
0.007445
0.024951
-0.119970
-0.141041
-0.150565
-0.145225
-0.155530
-0.161844
-0.137403
-0.155611
-0.156910
-0.153213
-0.116419
0.029309
0.005644
0.024249
-0.123838
-0.150293
-0.155652
-0.147880
-0.141778
-0.160790
-0.147393
-0.156220
-0.153860
-0.127514
-0.118023
0.028507
0.008765
0.007539
0.024152
-0.159018
-0.147644
-0.146222
-0.153280
-0.167149
-0.146083
-0.139869
-0.156299
-0.147537
0.028088
0.008245
0.008567
0.006767
0.007792
-0.006309
-0.141688
-0.138481
-0.150222
-0.163347
-0.138639
-0.153285
-0.162493
-0.014698
0.009357
0.008676
0.007606
0.007258
0.006574
0.005934
0.029661
-0.118995
-0.117635
-0.114626
-0.125679
-0.127572
0.025108
0.006677
0.006880
0.005684
0.008222
0.006817
0.007353
0.009788
0.008085
0.025920
0.024119
0.023545
0.024716
0.028430
0.005862
0.006219
0.009541
0.005377
0.008924
0.008583
0.005309
0.009535
0.006993
0.007061
0.009769
0.005800
0.005994
0.005220
0.007424
0.006433
0.007227
0.006141
-5.301535
3.192512
6.660172
-6.832917
-9.307897
-5.231940
9.140310
-3.220661
-4.123938
-12.367503
4.418575
-7.295498
0.000000
0.000000
0.000000
0.000000
0.000000
0.000000
0.000000
0.000000
0.000000
0.000000
0.000000
0.000000
0.000000
0.000000
0.000000
0.000000
0.000000
0.000000
0.000000
0.000000
0.000000
0.000000
0.000000
0.000000
0.000000
0.000000
0.000000
0.000000
0.000000
0.000000
0.000000
0.000000
0.000000
0.000000
0.000000
0.000000
0.000000
0.000000
0.000000
0.000000
0.000000
0.000000
0.000000
0.000000
0.000000
0.000000
0.000000
0.000000
0.000000
0.000000
0.000000
0.000000
0.000000
0.000000
0.000000
0.000000
0.000000
0.000000
0.000000
0.000000
0.000000
0.000000
0.000000
0.000000
0.000000
0.000000
0.000000
0.000000
0.000000
0.000000
0.000000
0.000000
0.000000
0.000000
0.000000
0.000000
0.000000
0.000000
0.000000
0.000000
0.000000
0.000000
0.000000
0.000000
0.000000
0.000000
0.000000
0.000000
0.000000
0.000000
0.000000
0.000000
0.000000
0.000000
0.000000
0.000000
0.000000
0.000000
0.000000
0.000000
0.000000
0.000000
0.000000
0.000000
0.000000
0.000000
0.000000
0.000000
0.000000
0.000000
0.000000
0.000000
0.000000
0.000000
0.000000
0.000000
0.000000
0.000000
0.000000
0.000000
0.000000
0.000000
0.000000
0.000000
0.000000
0.000000
0.000000
0.000000
0.000000
0.000000
0.000000
0.000000
0.000000
0.000000
0.000000
0.000000
0.000000
0.000000
0.000000
0.000000
0.000000
0.000000
0.000000
0.000000
0.000000
0.000000
0.000000
0.000000
0.000000
0.000000
0.000000
0.000000
0.000000
0.000000
0.000000
0.000000
0.000000
0.000000
0.000000
0.000000
0.000000
0.000000
0.000000
0.000000
0.000000
0.000000
0.000000
0.000000
0.000000
0.000000
0.000000
0.000000
0.000000
0.000000
0.000000
0.000000
0.000000
0.000000
0.000000
0.000000
0.000000
0.000000
0.000000
0.000000
0.000000
0.000000
0.000000
0.000000
0.000000
0.000000
0.000000
0.000000
0.000000
0.000000
0.000000
0.000000
-12.313242
6.450410
2.683541
-5.645171
4.637848
-4.864438
-0.488512
